<?xml version="1.0"?>
<opencv_storage>
<cascade>
  <stageType>BOOST</stageType>
  <featureType>HAAR</featureType>
  <height>24</height>
  <width>24</width>
  <stageParams>
    <boostType>GAB</boostType>
    <minHitRate>9.9500000476837158e-01</minHitRate>
    <maxFalseAlarm>5.0000000000000000e-01</maxFalseAlarm>
    <weightTrimRate>9.4999999999999996e-01</weightTrimRate>
    <maxDepth>1</maxDepth>
    <maxWeakCount>100</maxWeakCount></stageParams>
  <featureParams>
    <maxCatCount>0</maxCatCount>
    <featSize>1</featSize>
    <mode>ALL</mode></featureParams>
  <stageNum>20</stageNum>
  <stages>
    <!-- stage 0 -->
    <_>
      <maxWeakCount>2</maxWeakCount>
      <stageThreshold>-1.2623886764049530e-01</stageThreshold>
      <weakClassifiers>
        <_>
          <internalNodes>
            0 -1 51 -3.3566258847713470e-02</internalNodes>
          <leafValues>
            9.3170732259750366e-01 -9.7872340679168701e-01</leafValues></_>
        <_>
          <internalNodes>
            0 -1 13 -4.2615376412868500e-02</internalNodes>
          <leafValues>
            8.5248452425003052e-01 -9.3435209989547729e-01</leafValues></_></weakClassifiers></_>
    <!-- stage 1 -->
    <_>
      <maxWeakCount>2</maxWeakCount>
      <stageThreshold>-1.4807358384132385e-01</stageThreshold>
      <weakClassifiers>
        <_>
          <internalNodes>
            0 -1 64 5.7424156693741679e-05</internalNodes>
          <leafValues>
            -9.5061731338500977e-01 8.0733942985534668e-01</leafValues></_>
        <_>
          <internalNodes>
            0 -1 12 4.0418587625026703e-02</internalNodes>
          <leafValues>
            -8.3202260732650757e-01 8.0254369974136353e-01</leafValues></_></weakClassifiers></_>
    <!-- stage 2 -->
    <_>
      <maxWeakCount>2</maxWeakCount>
      <stageThreshold>-7.3299400508403778e-02</stageThreshold>
      <weakClassifiers>
        <_>
          <internalNodes>
            0 -1 65 3.7768915295600891e-02</internalNodes>
          <leafValues>
            -8.5365855693817139e-01 7.7880185842514038e-01</leafValues></_>
        <_>
          <internalNodes>
            0 -1 47 -3.3941229048650712e-05</internalNodes>
          <leafValues>
            7.8035914897918701e-01 -7.9670220613479614e-01</leafValues></_></weakClassifiers></_>
    <!-- stage 3 -->
    <_>
      <maxWeakCount>1</maxWeakCount>
      <stageThreshold>7.2294372320175171e-01</stageThreshold>
      <weakClassifiers>
        <_>
          <internalNodes>
            0 -1 68 3.4882305044448003e-05</internalNodes>
          <leafValues>
            -1. 7.2294372320175171e-01</leafValues></_></weakClassifiers></_>
    <!-- stage 4 -->
    <_>
      <maxWeakCount>3</maxWeakCount>
      <stageThreshold>1.4715716242790222e-01</stageThreshold>
      <weakClassifiers>
        <_>
          <internalNodes>
            0 -1 8 1.6585661098361015e-02</internalNodes>
          <leafValues>
            -8.5294115543365479e-01 6.7965370416641235e-01</leafValues></_>
        <_>
          <internalNodes>
            0 -1 67 -8.4905698895454407e-04</internalNodes>
          <leafValues>
            -8.9534175395965576e-01 4.9884063005447388e-01</leafValues></_>
        <_>
          <internalNodes>
            0 -1 24 2.3765835794620216e-04</internalNodes>
          <leafValues>
            5.0125771760940552e-01 -9.1466921567916870e-01</leafValues></_></weakClassifiers></_>
    <!-- stage 5 -->
    <_>
      <maxWeakCount>4</maxWeakCount>
      <stageThreshold>-5.0953966379165649e-01</stageThreshold>
      <weakClassifiers>
        <_>
          <internalNodes>
            0 -1 14 -6.7273043096065521e-03</internalNodes>
          <leafValues>
            7.1428573131561279e-01 -8.1333333253860474e-01</leafValues></_>
        <_>
          <internalNodes>
            0 -1 21 -2.5588195770978928e-02</internalNodes>
          <leafValues>
            4.9181035161018372e-01 -9.2027223110198975e-01</leafValues></_>
        <_>
          <internalNodes>
            0 -1 25 1.6347876517102122e-03</internalNodes>
          <leafValues>
            -6.2719988822937012e-01 7.0988726615905762e-01</leafValues></_>
        <_>
          <internalNodes>
            0 -1 48 6.4458108681719750e-05</internalNodes>
          <leafValues>
            -8.9790391921997070e-01 4.6395316720008850e-01</leafValues></_></weakClassifiers></_>
    <!-- stage 6 -->
    <_>
      <maxWeakCount>3</maxWeakCount>
      <stageThreshold>-8.4668582677841187e-01</stageThreshold>
      <weakClassifiers>
        <_>
          <internalNodes>
            0 -1 33 -1.6493198927491903e-03</internalNodes>
          <leafValues>
            -8.3098590373992920e-01 6.9298243522644043e-01</leafValues></_>
        <_>
          <internalNodes>
            0 -1 55 -3.3538504794705659e-05</internalNodes>
          <leafValues>
            6.1721450090408325e-01 -7.1476054191589355e-01</leafValues></_>
        <_>
          <internalNodes>
            0 -1 2 -1.0233470052480698e-01</internalNodes>
          <leafValues>
            5.4789900779724121e-01 -8.2490777969360352e-01</leafValues></_></weakClassifiers></_>
    <!-- stage 7 -->
    <_>
      <maxWeakCount>5</maxWeakCount>
      <stageThreshold>-4.1835832595825195e-01</stageThreshold>
      <weakClassifiers>
        <_>
          <internalNodes>
            0 -1 63 -1.7115012451540679e-04</internalNodes>
          <leafValues>
            -9.2982459068298340e-01 6.2809920310974121e-01</leafValues></_>
        <_>
          <internalNodes>
            0 -1 69 -6.0368376580299810e-05</internalNodes>
          <leafValues>
            5.1459264755249023e-01 -8.0307745933532715e-01</leafValues></_>
        <_>
          <internalNodes>
            0 -1 71 -1.7597302794456482e-03</internalNodes>
          <leafValues>
            -8.3248084783554077e-01 5.0743114948272705e-01</leafValues></_>
        <_>
          <internalNodes>
            0 -1 31 9.0437632752582431e-04</internalNodes>
          <leafValues>
            4.1926869750022888e-01 -8.0397927761077881e-01</leafValues></_>
        <_>
          <internalNodes>
            0 -1 49 3.4250788303324953e-05</internalNodes>
          <leafValues>
            -8.6196988821029663e-01 4.1008576750755310e-01</leafValues></_></weakClassifiers></_>
    <!-- stage 8 -->
    <_>
      <maxWeakCount>5</maxWeakCount>
      <stageThreshold>-2.9243031144142151e-01</stageThreshold>
      <weakClassifiers>
        <_>
          <internalNodes>
            0 -1 30 -3.5091347526758909e-03</internalNodes>
          <leafValues>
            7.2222220897674561e-01 -6.8674701452255249e-01</leafValues></_>
        <_>
          <internalNodes>
            0 -1 37 -7.7913035056553781e-05</internalNodes>
          <leafValues>
            5.5401992797851563e-01 -8.7263715267181396e-01</leafValues></_>
        <_>
          <internalNodes>
            0 -1 43 -3.2105802092701197e-03</internalNodes>
          <leafValues>
            5.7872116565704346e-01 -7.8976833820343018e-01</leafValues></_>
        <_>
          <internalNodes>
            0 -1 7 8.6166255641728640e-05</internalNodes>
          <leafValues>
            3.8924723863601685e-01 -9.4050705432891846e-01</leafValues></_>
        <_>
          <internalNodes>
            0 -1 39 -1.0100638028234243e-03</internalNodes>
          <leafValues>
            -9.9299019575119019e-01 2.9898539185523987e-01</leafValues></_></weakClassifiers></_>
    <!-- stage 9 -->
    <_>
      <maxWeakCount>4</maxWeakCount>
      <stageThreshold>-5.8782488107681274e-01</stageThreshold>
      <weakClassifiers>
        <_>
          <internalNodes>
            0 -1 58 -2.0845692604780197e-02</internalNodes>
          <leafValues>
            7.0135748386383057e-01 -7.1794873476028442e-01</leafValues></_>
        <_>
          <internalNodes>
            0 -1 22 -1.5960828750394285e-04</internalNodes>
          <leafValues>
            -8.3402001857757568e-01 4.8527404665946960e-01</leafValues></_>
        <_>
          <internalNodes>
            0 -1 41 -2.8289621695876122e-03</internalNodes>
          <leafValues>
            5.8242976665496826e-01 -6.8673497438430786e-01</leafValues></_>
        <_>
          <internalNodes>
            0 -1 61 -2.1858548279851675e-04</internalNodes>
          <leafValues>
            -9.3937200307846069e-01 3.8171404600143433e-01</leafValues></_></weakClassifiers></_>
    <!-- stage 10 -->
    <_>
      <maxWeakCount>4</maxWeakCount>
      <stageThreshold>-5.6068193912506104e-01</stageThreshold>
      <weakClassifiers>
        <_>
          <internalNodes>
            0 -1 9 4.6259881928563118e-03</internalNodes>
          <leafValues>
            6.5400844812393188e-01 -9.0322577953338623e-01</leafValues></_>
        <_>
          <internalNodes>
            0 -1 42 3.1597035558661446e-05</internalNodes>
          <leafValues>
            -6.1197119951248169e-01 6.7959451675415039e-01</leafValues></_>
        <_>
          <internalNodes>
            0 -1 57 -5.3984555415809155e-04</internalNodes>
          <leafValues>
            -9.2273277044296265e-01 4.0945819020271301e-01</leafValues></_>
        <_>
          <internalNodes>
            0 -1 40 -4.0694423019886017e-02</internalNodes>
          <leafValues>
            5.4505687952041626e-01 -7.2949826717376709e-01</leafValues></_></weakClassifiers></_>
    <!-- stage 11 -->
    <_>
      <maxWeakCount>4</maxWeakCount>
      <stageThreshold>-2.5099635124206543e-01</stageThreshold>
      <weakClassifiers>
        <_>
          <internalNodes>
            0 -1 27 -1.7323470674455166e-03</internalNodes>
          <leafValues>
            -8.7096774578094482e-01 6.4556962251663208e-01</leafValues></_>
        <_>
          <internalNodes>
            0 -1 60 -5.0391107797622681e-03</internalNodes>
          <leafValues>
            8.8241308927536011e-01 -4.8659417033195496e-01</leafValues></_>
        <_>
          <internalNodes>
            0 -1 17 5.7503057178109884e-04</internalNodes>
          <leafValues>
            5.2656006813049316e-01 -8.7855982780456543e-01</leafValues></_>
        <_>
          <internalNodes>
            0 -1 32 -1.2612927239388227e-03</internalNodes>
          <leafValues>
            5.8000552654266357e-01 -8.0846095085144043e-01</leafValues></_></weakClassifiers></_>
    <!-- stage 12 -->
    <_>
      <maxWeakCount>5</maxWeakCount>
      <stageThreshold>-3.2700183987617493e-01</stageThreshold>
      <weakClassifiers>
        <_>
          <internalNodes>
            0 -1 19 -7.4766337871551514e-02</internalNodes>
          <leafValues>
            5.7142859697341919e-01 -9.5744681358337402e-01</leafValues></_>
        <_>
          <internalNodes>
            0 -1 53 -3.3468790352344513e-03</internalNodes>
          <leafValues>
            -8.7110382318496704e-01 3.9467754960060120e-01</leafValues></_>
        <_>
          <internalNodes>
            0 -1 3 -1.1634963005781174e-01</internalNodes>
          <leafValues>
            5.0062030553817749e-01 -7.4341279268264771e-01</leafValues></_>
        <_>
          <internalNodes>
            0 -1 0 -3.0526229238603264e-05</internalNodes>
          <leafValues>
            3.7242990732192993e-01 -8.6391741037368774e-01</leafValues></_>
        <_>
          <internalNodes>
            0 -1 11 -2.8023944469168782e-04</internalNodes>
          <leafValues>
            -9.2981088161468506e-01 3.7569436430931091e-01</leafValues></_></weakClassifiers></_>
    <!-- stage 13 -->
    <_>
      <maxWeakCount>4</maxWeakCount>
      <stageThreshold>-2.5121518969535828e-01</stageThreshold>
      <weakClassifiers>
        <_>
          <internalNodes>
            0 -1 54 3.1981828215066344e-05</internalNodes>
          <leafValues>
            -7.6470589637756348e-01 6.5367966890335083e-01</leafValues></_>
        <_>
          <internalNodes>
            0 -1 28 -5.7678123994264752e-05</internalNodes>
          <leafValues>
            6.7363137006759644e-01 -5.5900609493255615e-01</leafValues></_>
        <_>
          <internalNodes>
            0 -1 15 7.3289331048727036e-03</internalNodes>
          <leafValues>
            -5.5859822034835815e-01 6.8736928701400757e-01</leafValues></_>
        <_>
          <internalNodes>
            0 -1 62 3.4550506825326011e-05</internalNodes>
          <leafValues>
            -9.2220401763916016e-01 3.8512751460075378e-01</leafValues></_></weakClassifiers></_>
    <!-- stage 14 -->
    <_>
      <maxWeakCount>4</maxWeakCount>
      <stageThreshold>-6.8358367681503296e-01</stageThreshold>
      <weakClassifiers>
        <_>
          <internalNodes>
            0 -1 1 2.4256594479084015e-03</internalNodes>
          <leafValues>
            5.8399999141693115e-01 -9.5918369293212891e-01</leafValues></_>
        <_>
          <internalNodes>
            0 -1 29 -2.1814607083797455e-02</internalNodes>
          <leafValues>
            5.5278044939041138e-01 -6.7628669738769531e-01</leafValues></_>
        <_>
          <internalNodes>
            0 -1 18 -7.8053935430943966e-04</internalNodes>
          <leafValues>
            -7.0802092552185059e-01 5.1856899261474609e-01</leafValues></_>
        <_>
          <internalNodes>
            0 -1 70 -5.9676593082258478e-05</internalNodes>
          <leafValues>
            4.0713626146316528e-01 -7.9574942588806152e-01</leafValues></_></weakClassifiers></_>
    <!-- stage 15 -->
    <_>
      <maxWeakCount>3</maxWeakCount>
      <stageThreshold>-9.3208968639373779e-01</stageThreshold>
      <weakClassifiers>
        <_>
          <internalNodes>
            0 -1 46 8.5232622222974896e-04</internalNodes>
          <leafValues>
            6.7400878667831421e-01 -7.5000000000000000e-01</leafValues></_>
        <_>
          <internalNodes>
            0 -1 23 -1.7752580344676971e-02</internalNodes>
          <leafValues>
            4.8979634046554565e-01 -7.4405235052108765e-01</leafValues></_>
        <_>
          <internalNodes>
            0 -1 38 -2.3380562197417021e-04</internalNodes>
          <leafValues>
            -8.6204612255096436e-01 4.9527183175086975e-01</leafValues></_></weakClassifiers></_>
    <!-- stage 16 -->
    <_>
      <maxWeakCount>5</maxWeakCount>
      <stageThreshold>-5.8055198192596436e-01</stageThreshold>
      <weakClassifiers>
        <_>
          <internalNodes>
            0 -1 26 5.3737089037895203e-03</internalNodes>
          <leafValues>
            6.0323888063430786e-01 -9.6153843402862549e-01</leafValues></_>
        <_>
          <internalNodes>
            0 -1 20 -1.1223166948184371e-03</internalNodes>
          <leafValues>
            -8.8591372966766357e-01 4.0118002891540527e-01</leafValues></_>
        <_>
          <internalNodes>
            0 -1 59 3.2750010723248124e-04</internalNodes>
          <leafValues>
            2.8292298316955566e-01 -9.1571652889251709e-01</leafValues></_>
        <_>
          <internalNodes>
            0 -1 10 -1.0199762880802155e-02</internalNodes>
          <leafValues>
            4.8348528146743774e-01 -6.4853918552398682e-01</leafValues></_>
        <_>
          <internalNodes>
            0 -1 35 1.0641958564519882e-02</internalNodes>
          <leafValues>
            3.4542268514633179e-01 -9.8006129264831543e-01</leafValues></_></weakClassifiers></_>
    <!-- stage 17 -->
    <_>
      <maxWeakCount>4</maxWeakCount>
      <stageThreshold>-4.6755787730216980e-01</stageThreshold>
      <weakClassifiers>
        <_>
          <internalNodes>
            0 -1 36 -2.7567059732973576e-03</internalNodes>
          <leafValues>
            6.5957444906234741e-01 -8.7500000000000000e-01</leafValues></_>
        <_>
          <internalNodes>
            0 -1 45 2.3002328351140022e-02</internalNodes>
          <leafValues>
            -5.1422631740570068e-01 7.1324616670608521e-01</leafValues></_>
        <_>
          <internalNodes>
            0 -1 66 6.5562941017560661e-05</internalNodes>
          <leafValues>
            -6.3022100925445557e-01 5.6923365592956543e-01</leafValues></_>
        <_>
          <internalNodes>
            0 -1 16 6.1990520916879177e-03</internalNodes>
          <leafValues>
            3.2441699504852295e-01 -9.9069356918334961e-01</leafValues></_></weakClassifiers></_>
    <!-- stage 18 -->
    <_>
      <maxWeakCount>4</maxWeakCount>
      <stageThreshold>-3.1317088007926941e-01</stageThreshold>
      <weakClassifiers>
        <_>
          <internalNodes>
            0 -1 5 -1.7741257033776492e-04</internalNodes>
          <leafValues>
            -8.6666667461395264e-01 6.3179916143417358e-01</leafValues></_>
        <_>
          <internalNodes>
            0 -1 52 1.1387407779693604e-02</internalNodes>
          <leafValues>
            -7.9793554544448853e-01 4.0683484077453613e-01</leafValues></_>
        <_>
          <internalNodes>
            0 -1 6 2.5895971804857254e-02</internalNodes>
          <leafValues>
            -4.4006517529487610e-01 8.2453411817550659e-01</leafValues></_>
        <_>
          <internalNodes>
            0 -1 56 3.2511477911612019e-05</internalNodes>
          <leafValues>
            -6.3439476490020752e-01 5.8672612905502319e-01</leafValues></_></weakClassifiers></_>
    <!-- stage 19 -->
    <_>
      <maxWeakCount>4</maxWeakCount>
      <stageThreshold>-5.6397551298141479e-01</stageThreshold>
      <weakClassifiers>
        <_>
          <internalNodes>
            0 -1 50 -5.8079673908650875e-04</internalNodes>
          <leafValues>
            -1. 5.6078433990478516e-01</leafValues></_>
        <_>
          <internalNodes>
            0 -1 4 9.3928989372216165e-05</internalNodes>
          <leafValues>
            3.5345116257667542e-01 -8.7883192300796509e-01</leafValues></_>
        <_>
          <internalNodes>
            0 -1 34 1.0069324634969234e-03</internalNodes>
          <leafValues>
            3.9270183444023132e-01 -9.0745127201080322e-01</leafValues></_>
        <_>
          <internalNodes>
            0 -1 44 1.0918022692203522e-01</internalNodes>
          <leafValues>
            -5.1116049289703369e-01 6.6152334213256836e-01</leafValues></_></weakClassifiers></_></stages>
  <features>
    <_>
      <rects>
        <_>
          0 0 2 18 -1.</_>
        <_>
          1 0 1 18 2.</_></rects>
      <tilted>0</tilted></_>
    <_>
      <rects>
        <_>
          0 0 24 2 -1.</_>
        <_>
          6 0 12 2 2.</_></rects>
      <tilted>0</tilted></_>
    <_>
      <rects>
        <_>
          0 0 24 21 -1.</_>
        <_>
          6 0 12 21 2.</_></rects>
      <tilted>0</tilted></_>
    <_>
      <rects>
        <_>
          0 2 24 17 -1.</_>
        <_>
          6 2 12 17 2.</_></rects>
      <tilted>0</tilted></_>
    <_>
      <rects>
        <_>
          1 0 2 9 -1.</_>
        <_>
          2 0 1 9 2.</_></rects>
      <tilted>0</tilted></_>
    <_>
      <rects>
        <_>
          1 0 6 1 -1.</_>
        <_>
          3 0 2 1 3.</_></rects>
      <tilted>0</tilted></_>
    <_>
      <rects>
        <_>
          1 5 10 1 -1.</_>
        <_>
          1 5 5 1 2.</_></rects>
      <tilted>1</tilted></_>
    <_>
      <rects>
        <_>
          2 0 2 4 -1.</_>
        <_>
          3 0 1 4 2.</_></rects>
      <tilted>0</tilted></_>
    <_>
      <rects>
        <_>
          2 0 10 1 -1.</_>
        <_>
          2 0 5 1 2.</_></rects>
      <tilted>1</tilted></_>
    <_>
      <rects>
        <_>
          2 0 16 2 -1.</_>
        <_>
          10 0 8 2 2.</_></rects>
      <tilted>0</tilted></_>
    <_>
      <rects>
        <_>
          2 5 9 18 -1.</_>
        <_>
          5 5 3 18 3.</_></rects>
      <tilted>0</tilted></_>
    <_>
      <rects>
        <_>
          3 0 4 1 -1.</_>
        <_>
          5 0 2 1 2.</_></rects>
      <tilted>0</tilted></_>
    <_>
      <rects>
        <_>
          3 0 10 2 -1.</_>
        <_>
          3 0 5 2 2.</_></rects>
      <tilted>1</tilted></_>
    <_>
      <rects>
        <_>
          3 0 5 18 -1.</_>
        <_>
          3 9 5 9 2.</_></rects>
      <tilted>0</tilted></_>
    <_>
      <rects>
        <_>
          3 10 11 10 -1.</_>
        <_>
          3 15 11 5 2.</_></rects>
      <tilted>0</tilted></_>
    <_>
      <rects>
        <_>
          4 0 4 20 -1.</_>
        <_>
          4 0 2 10 2.</_>
        <_>
          6 10 2 10 2.</_></rects>
      <tilted>0</tilted></_>
    <_>
      <rects>
        <_>
          4 0 16 11 -1.</_>
        <_>
          8 0 8 11 2.</_></rects>
      <tilted>0</tilted></_>
    <_>
      <rects>
        <_>
          4 0 7 4 -1.</_>
        <_>
          3 1 7 2 2.</_></rects>
      <tilted>1</tilted></_>
    <_>
      <rects>
        <_>
          4 0 20 4 -1.</_>
        <_>
          4 0 10 2 2.</_>
        <_>
          14 2 10 2 2.</_></rects>
      <tilted>0</tilted></_>
    <_>
      <rects>
        <_>
          4 0 19 21 -1.</_>
        <_>
          4 7 19 7 3.</_></rects>
      <tilted>0</tilted></_>
    <_>
      <rects>
        <_>
          4 2 11 3 -1.</_>
        <_>
          3 3 11 1 3.</_></rects>
      <tilted>1</tilted></_>
    <_>
      <rects>
        <_>
          5 0 10 8 -1.</_>
        <_>
          5 4 10 4 2.</_></rects>
      <tilted>0</tilted></_>
    <_>
      <rects>
        <_>
          5 1 1 3 -1.</_>
        <_>
          4 2 1 1 3.</_></rects>
      <tilted>1</tilted></_>
    <_>
      <rects>
        <_>
          5 6 6 18 -1.</_>
        <_>
          5 15 6 9 2.</_></rects>
      <tilted>0</tilted></_>
    <_>
      <rects>
        <_>
          6 0 7 4 -1.</_>
        <_>
          5 1 7 2 2.</_></rects>
      <tilted>1</tilted></_>
    <_>
      <rects>
        <_>
          6 1 2 16 -1.</_>
        <_>
          6 1 1 8 2.</_>
        <_>
          7 9 1 8 2.</_></rects>
      <tilted>0</tilted></_>
    <_>
      <rects>
        <_>
          6 1 8 6 -1.</_>
        <_>
          4 3 8 2 3.</_></rects>
      <tilted>1</tilted></_>
    <_>
      <rects>
        <_>
          6 2 9 3 -1.</_>
        <_>
          5 3 9 1 3.</_></rects>
      <tilted>1</tilted></_>
    <_>
      <rects>
        <_>
          6 22 2 2 -1.</_>
        <_>
          7 22 1 2 2.</_></rects>
      <tilted>0</tilted></_>
    <_>
      <rects>
        <_>
          7 7 7 16 -1.</_>
        <_>
          7 15 7 8 2.</_></rects>
      <tilted>0</tilted></_>
    <_>
      <rects>
        <_>
          7 12 16 12 -1.</_>
        <_>
          7 15 16 6 2.</_></rects>
      <tilted>0</tilted></_>
    <_>
      <rects>
        <_>
          8 0 8 1 -1.</_>
        <_>
          12 0 4 1 2.</_></rects>
      <tilted>0</tilted></_>
    <_>
      <rects>
        <_>
          8 12 2 10 -1.</_>
        <_>
          8 17 2 5 2.</_></rects>
      <tilted>0</tilted></_>
    <_>
      <rects>
        <_>
          9 0 15 2 -1.</_>
        <_>
          14 0 5 2 3.</_></rects>
      <tilted>0</tilted></_>
    <_>
      <rects>
        <_>
          9 2 7 3 -1.</_>
        <_>
          8 3 7 1 3.</_></rects>
      <tilted>1</tilted></_>
    <_>
      <rects>
        <_>
          9 9 13 6 -1.</_>
        <_>
          9 11 13 2 3.</_></rects>
      <tilted>0</tilted></_>
    <_>
      <rects>
        <_>
          9 11 5 8 -1.</_>
        <_>
          7 13 5 4 2.</_></rects>
      <tilted>1</tilted></_>
    <_>
      <rects>
        <_>
          10 0 7 4 -1.</_>
        <_>
          9 1 7 2 2.</_></rects>
      <tilted>1</tilted></_>
    <_>
      <rects>
        <_>
          11 7 2 2 -1.</_>
        <_>
          11 8 2 1 2.</_></rects>
      <tilted>0</tilted></_>
    <_>
      <rects>
        <_>
          11 22 13 2 -1.</_>
        <_>
          11 23 13 1 2.</_></rects>
      <tilted>0</tilted></_>
    <_>
      <rects>
        <_>
          12 0 6 8 -1.</_>
        <_>
          12 4 6 4 2.</_></rects>
      <tilted>0</tilted></_>
    <_>
      <rects>
        <_>
          12 3 12 6 -1.</_>
        <_>
          12 5 12 2 3.</_></rects>
      <tilted>0</tilted></_>
    <_>
      <rects>
        <_>
          12 8 4 4 -1.</_>
        <_>
          12 9 4 2 2.</_></rects>
      <tilted>0</tilted></_>
    <_>
      <rects>
        <_>
          12 11 1 12 -1.</_>
        <_>
          9 14 1 6 2.</_></rects>
      <tilted>1</tilted></_>
    <_>
      <rects>
        <_>
          13 4 10 20 -1.</_>
        <_>
          18 4 5 20 2.</_></rects>
      <tilted>0</tilted></_>
    <_>
      <rects>
        <_>
          13 11 6 7 -1.</_>
        <_>
          13 11 3 7 2.</_></rects>
      <tilted>1</tilted></_>
    <_>
      <rects>
        <_>
          14 0 10 1 -1.</_>
        <_>
          19 0 5 1 2.</_></rects>
      <tilted>0</tilted></_>
    <_>
      <rects>
        <_>
          14 9 2 5 -1.</_>
        <_>
          15 9 1 5 2.</_></rects>
      <tilted>0</tilted></_>
    <_>
      <rects>
        <_>
          14 12 2 1 -1.</_>
        <_>
          14 12 1 1 2.</_></rects>
      <tilted>1</tilted></_>
    <_>
      <rects>
        <_>
          15 0 4 6 -1.</_>
        <_>
          17 0 2 6 2.</_></rects>
      <tilted>0</tilted></_>
    <_>
      <rects>
        <_>
          15 0 8 1 -1.</_>
        <_>
          19 0 4 1 2.</_></rects>
      <tilted>0</tilted></_>
    <_>
      <rects>
        <_>
          15 0 6 10 -1.</_>
        <_>
          15 5 6 5 2.</_></rects>
      <tilted>0</tilted></_>
    <_>
      <rects>
        <_>
          15 2 8 7 -1.</_>
        <_>
          19 2 4 7 2.</_></rects>
      <tilted>0</tilted></_>
    <_>
      <rects>
        <_>
          15 5 5 9 -1.</_>
        <_>
          12 8 5 3 3.</_></rects>
      <tilted>1</tilted></_>
    <_>
      <rects>
        <_>
          15 11 2 1 -1.</_>
        <_>
          15 11 1 1 2.</_></rects>
      <tilted>1</tilted></_>
    <_>
      <rects>
        <_>
          16 9 2 2 -1.</_>
        <_>
          17 9 1 2 2.</_></rects>
      <tilted>0</tilted></_>
    <_>
      <rects>
        <_>
          16 19 7 2 -1.</_>
        <_>
          16 20 7 1 2.</_></rects>
      <tilted>0</tilted></_>
    <_>
      <rects>
        <_>
          17 0 6 4 -1.</_>
        <_>
          19 0 2 4 3.</_></rects>
      <tilted>0</tilted></_>
    <_>
      <rects>
        <_>
          17 3 6 18 -1.</_>
        <_>
          17 9 6 6 3.</_></rects>
      <tilted>0</tilted></_>
    <_>
      <rects>
        <_>
          18 0 6 2 -1.</_>
        <_>
          20 0 2 2 3.</_></rects>
      <tilted>0</tilted></_>
    <_>
      <rects>
        <_>
          18 12 6 1 -1.</_>
        <_>
          18 12 3 1 2.</_></rects>
      <tilted>1</tilted></_>
    <_>
      <rects>
        <_>
          19 1 4 3 -1.</_>
        <_>
          21 1 2 3 2.</_></rects>
      <tilted>0</tilted></_>
    <_>
      <rects>
        <_>
          19 4 2 5 -1.</_>
        <_>
          20 4 1 5 2.</_></rects>
      <tilted>0</tilted></_>
    <_>
      <rects>
        <_>
          20 0 3 1 -1.</_>
        <_>
          21 1 1 1 3.</_></rects>
      <tilted>1</tilted></_>
    <_>
      <rects>
        <_>
          20 0 2 9 -1.</_>
        <_>
          21 0 1 9 2.</_></rects>
      <tilted>0</tilted></_>
    <_>
      <rects>
        <_>
          21 0 3 8 -1.</_>
        <_>
          21 0 3 4 2.</_></rects>
      <tilted>1</tilted></_>
    <_>
      <rects>
        <_>
          21 16 2 2 -1.</_>
        <_>
          22 16 1 2 2.</_></rects>
      <tilted>0</tilted></_>
    <_>
      <rects>
        <_>
          22 0 2 14 -1.</_>
        <_>
          22 0 1 7 2.</_>
        <_>
          23 7 1 7 2.</_></rects>
      <tilted>0</tilted></_>
    <_>
      <rects>
        <_>
          22 2 2 8 -1.</_>
        <_>
          23 2 1 8 2.</_></rects>
      <tilted>0</tilted></_>
    <_>
      <rects>
        <_>
          23 6 1 2 -1.</_>
        <_>
          23 7 1 1 2.</_></rects>
      <tilted>0</tilted></_>
    <_>
      <rects>
        <_>
          23 7 1 2 -1.</_>
        <_>
          23 8 1 1 2.</_></rects>
      <tilted>0</tilted></_>
    <_>
      <rects>
        <_>
          23 16 1 8 -1.</_>
        <_>
          23 20 1 4 2.</_></rects>
      <tilted>0</tilted></_></features></cascade>
</opencv_storage>
